<?xml version="1.0"?>
<opencv_storage>
<cascade>
  <stageType>BOOST</stageType>
  <featureType>HOG</featureType>
  <height>24</height>
  <width>36</width>
  <stageParams>
    <boostType>GAB</boostType>
    <minHitRate>9.9500000476837158e-01</minHitRate>
    <maxFalseAlarm>5.0000000000000000e-01</maxFalseAlarm>
    <weightTrimRate>9.4999999999999996e-01</weightTrimRate>
    <maxDepth>1</maxDepth>
    <maxWeakCount>100</maxWeakCount></stageParams>
  <featureParams>
    <maxCatCount>0</maxCatCount>
    <featSize>36</featSize></featureParams>
  <stageNum>5</stageNum>
  <stages>
    <!-- stage 0 -->
    <_>
      <maxWeakCount>2</maxWeakCount>
      <stageThreshold>-2.1781292557716370e-01</stageThreshold>
      <weakClassifiers>
        <_>
          <internalNodes>
            0 -1 8 1.1961322743445635e-03</internalNodes>
          <leafValues>
            1. -9.6078431606292725e-01</leafValues></_>
        <_>
          <internalNodes>
            0 -1 5 3.7692755460739136e-02</internalNodes>
          <leafValues>
            -9.6072250604629517e-01 7.4297136068344116e-01</leafValues></_></weakClassifiers></_>
    <!-- stage 1 -->
    <_>
      <maxWeakCount>2</maxWeakCount>
      <stageThreshold>-2.9101625084877014e-01</stageThreshold>
      <weakClassifiers>
        <_>
          <internalNodes>
            0 -1 1 6.4580872654914856e-02</internalNodes>
          <leafValues>
            -8.8461536169052124e-01 7.1428573131561279e-01</leafValues></_>
        <_>
          <internalNodes>
            0 -1 4 3.8987245410680771e-02</internalNodes>
          <leafValues>
            -9.5173555612564087e-01 5.9359914064407349e-01</leafValues></_></weakClassifiers></_>
    <!-- stage 2 -->
    <_>
      <maxWeakCount>2</maxWeakCount>
      <stageThreshold>-1.4076808094978333e-01</stageThreshold>
      <weakClassifiers>
        <_>
          <internalNodes>
            0 -1 7 3.9252348244190216e-02</internalNodes>
          <leafValues>
            -9.2307692766189575e-01 1.</leafValues></_>
        <_>
          <internalNodes>
            0 -1 0 5.2104413509368896e-02</internalNodes>
          <leafValues>
            -8.9058691263198853e-01 7.8230881690979004e-01</leafValues></_></weakClassifiers></_>
    <!-- stage 3 -->
    <_>
      <maxWeakCount>2</maxWeakCount>
      <stageThreshold>-1.1839196085929871e-01</stageThreshold>
      <weakClassifiers>
        <_>
          <internalNodes>
            0 -1 2 6.9198295474052429e-02</internalNodes>
          <leafValues>
            -8.8461536169052124e-01 7.1428573131561279e-01</leafValues></_>
        <_>
          <internalNodes>
            0 -1 3 5.2999265491962433e-02</internalNodes>
          <leafValues>
            -8.3267766237258911e-01 8.1793695688247681e-01</leafValues></_></weakClassifiers></_>
    <!-- stage 4 -->
    <_>
      <maxWeakCount>2</maxWeakCount>
      <stageThreshold>-4.1919669508934021e-01</stageThreshold>
      <weakClassifiers>
        <_>
          <internalNodes>
            0 -1 6 4.1114553809165955e-02</internalNodes>
          <leafValues>
            -9.5833331346511841e-01 4.5454546809196472e-01</leafValues></_>
        <_>
          <internalNodes>
            0 -1 9 1.4725649729371071e-02</internalNodes>
          <leafValues>
            5.3913664817810059e-01 -1.</leafValues></_></weakClassifiers></_></stages>
  <features>
    <_>
      <rect>
        0 4 8 8 33</rect></_>
    <_>
      <rect>
        4 0 8 8 30</rect></_>
    <_>
      <rect>
        4 4 8 8 12</rect></_>
    <_>
      <rect>
        8 8 8 8 28</rect></_>
    <_>
      <rect>
        16 0 8 8 19</rect></_>
    <_>
      <rect>
        16 0 8 8 23</rect></_>
    <_>
      <rect>
        16 8 8 8 2</rect></_>
    <_>
      <rect>
        16 8 8 8 7</rect></_>
    <_>
      <rect>
        20 4 8 8 35</rect></_>
    <_>
      <rect>
        0 0 16 8 4</rect></_></features></cascade>
</opencv_storage>
